|--- feature_87 <= 0.00
|   |--- feature_9 <= 0.18
|   |   |--- feature_56 <= 0.13
|   |   |   |--- feature_1 <= 0.84
|   |   |   |   |--- feature_77 <= 0.03
|   |   |   |   |   |--- class: 1
|   |   |   |   |--- feature_77 >  0.03
|   |   |   |   |   |--- class: 0
|   |   |   |--- feature_1 >  0.84
|   |   |   |   |--- feature_18 <= 0.04
|   |   |   |   |   |--- class: 3
|   |   |   |   |--- feature_18 >  0.04
|   |   |   |   |   |--- class: 0
|   |   |--- feature_56 >  0.13
|   |   |   |--- feature_3 <= 0.15
|   |   |   |   |--- feature_12 <= 0.07
|   |   |   |   |   |--- class: 3
|   |   |   |   |--- feature_12 >  0.07
|   |   |   |   |   |--- class: 0
|   |   |   |--- feature_3 >  0.15
|   |   |   |   |--- feature_43 <= 0.28
|   |   |   |   |   |--- class: 3
|   |   |   |   |--- feature_43 >  0.28
|   |   |   |   |   |--- class: 2
|   |--- feature_9 >  0.18
|   |   |--- feature_3 <= 0.10
|   |   |   |--- feature_22 <= 0.47
|   |   |   |   |--- feature_68 <= 0.09
|   |   |   |   |   |--- class: 1
|   |   |   |   |--- feature_68 >  0.09
|   |   |   |   |   |--- class: 0
|   |   |   |--- feature_22 >  0.47
|   |   |   |   |--- feature_1 <= 0.31
|   |   |   |   |   |--- class: 2
|   |   |   |   |--- feature_1 >  0.31
|   |   |   |   |   |--- class: 0
|   |   |--- feature_3 >  0.10
|   |   |   |--- feature_9 <= 0.70
|   |   |   |   |--- feature_0 <= 0.98
|   |   |   |   |   |--- class: 2
|   |   |   |   |--- feature_0 >  0.98
|   |   |   |   |   |--- class: 0
|   |   |   |--- feature_9 >  0.70
|   |   |   |   |--- feature_4 <= 0.63
|   |   |   |   |   |--- class: 1
|   |   |   |   |--- feature_4 >  0.63
|   |   |   |   |   |--- class: 3
|--- feature_87 >  0.00
|   |--- feature_3 <= 0.29
|   |   |--- feature_0 <= 0.77
|   |   |   |--- feature_35 <= 0.34
|   |   |   |   |--- feature_64 <= 0.07
|   |   |   |   |   |--- class: 1
|   |   |   |   |--- feature_64 >  0.07
|   |   |   |   |   |--- class: 1
|   |   |   |--- feature_35 >  0.34
|   |   |   |   |--- feature_2 <= 0.60
|   |   |   |   |   |--- class: 2
|   |   |   |   |--- feature_2 >  0.60
|   |   |   |   |   |--- class: 0
|   |   |--- feature_0 >  0.77
|   |   |   |--- feature_36 <= 0.50
|   |   |   |   |--- feature_27 <= 0.04
|   |   |   |   |   |--- class: 1
|   |   |   |   |--- feature_27 >  0.04
|   |   |   |   |   |--- class: 0
|   |   |   |--- feature_36 >  0.50
|   |   |   |   |--- feature_2 <= 0.43
|   |   |   |   |   |--- class: 1
|   |   |   |   |--- feature_2 >  0.43
|   |   |   |   |   |--- class: 2
|   |--- feature_3 >  0.29
|   |   |--- feature_101 <= 0.34
|   |   |   |--- feature_2 <= 0.72
|   |   |   |   |--- feature_1 <= 0.73
|   |   |   |   |   |--- class: 4
|   |   |   |   |--- feature_1 >  0.73
|   |   |   |   |   |--- class: 0
|   |   |   |--- feature_2 >  0.72
|   |   |   |   |--- feature_27 <= 0.17
|   |   |   |   |   |--- class: 2
|   |   |   |   |--- feature_27 >  0.17
|   |   |   |   |   |--- class: 0
|   |   |--- feature_101 >  0.34
|   |   |   |--- feature_134 <= 0.01
|   |   |   |   |--- feature_26 <= 0.05
|   |   |   |   |   |--- class: 2
|   |   |   |   |--- feature_26 >  0.05
|   |   |   |   |   |--- class: 4
|   |   |   |--- feature_134 >  0.01
|   |   |   |   |--- feature_9 <= 0.17
|   |   |   |   |   |--- class: 2
|   |   |   |   |--- feature_9 >  0.17
|   |   |   |   |   |--- class: 0
